// #### Generated By: http://www.cufonfonts.com ####
/*!
 * The following copyright notice may not be removed under any circumstances.
 * 
 * Copyright:
 * (c) 1993 Titivillus Foundry/Ethel Enterprises. **All rights reserved.**Generated
 * by Fontographer 3.5
 */
Raphael.registerFont({"w":1087,"face":{"font-family":"Samarkan Normal","font-weight":400,"font-stretch":"normal","units-per-em":"2048","panose-1":"2 11 5 0 0 0 0 0 0 0","ascent":"1638","descent":"-410","cap-height":"23","bbox":"-283.043 -1855 1579 674.585","underline-thickness":"20","underline-position":"-123","unicode-range":"U+0020-U+007C"},"glyphs":{" ":{"w":666},"!":{"d":"365,-1636r-39,672v-8,158,-14,322,-19,491r-164,98r-27,-811r-18,-403xm399,-176v-35,51,-92,116,-153,176v-29,-22,-89,-79,-180,-170r126,-142v22,-24,36,-36,41,-36v24,22,129,133,166,172","w":451},"\"":{"d":"457,-1423v-9,20,69,92,73,98v-90,-8,-186,-85,-198,-172v-5,-35,60,-108,88,-107r104,97v-25,23,-63,40,-67,84xm174,-1454v-37,57,41,97,64,129v-90,-8,-187,-85,-199,-172v-5,-35,60,-108,88,-107r104,97v-20,17,-42,31,-57,53xm594,-1085v-2,39,4,86,-2,120r-604,0r0,-120r606,0","w":584},"$":{"d":"350,-350v-117,-29,-266,-54,-266,-195v0,-104,124,-165,200,-209v28,-16,49,-23,60,-24r0,-187r-362,0r-2,-120r798,0r0,120r-340,0r0,170v109,-1,186,31,250,70r-129,111r-125,-62r0,207v101,17,268,55,268,174v0,90,-90,162,-156,206v-43,28,-80,43,-110,46r0,90r-84,0r0,-80v-114,0,-202,-22,-264,-65r109,-111v23,18,114,48,153,47r0,-188xm352,-694v-58,-1,-164,23,-164,76v0,77,111,115,164,126r0,-202xm563,-160v67,-13,38,-92,5,-125v-24,-24,-67,-40,-132,-47r0,187v60,-4,102,-10,127,-15","w":770},"&":{"d":"383,0v-152,-4,-340,-58,-340,-213v0,-127,139,-182,225,-233v10,-13,12,-15,-2,-23v-60,-7,-197,-65,-184,-143v19,-117,138,-176,255,-211v54,-15,116,-23,185,-23r-2,-119r-536,0r0,-120r860,0r-2,120r-201,0r-2,168r-117,76v-39,-29,-114,-60,-205,-57v-54,2,-115,25,-112,86v5,106,137,129,248,140r174,17r-74,93v-109,0,-237,32,-302,79v-65,48,-72,94,-15,155v55,60,165,109,286,108v71,0,107,-16,107,-47v0,-34,-106,-105,-156,-105r-174,0r2,-27v23,-2,29,-18,45,-26v164,-1,348,17,451,-57v-24,64,-65,105,-121,131v9,7,14,22,14,45v0,135,-140,190,-307,186","w":823},"'":{"d":"162,-1604v28,-1,93,71,88,107v-12,87,-109,164,-199,172v20,-28,74,-54,74,-98v0,-50,-29,-47,-68,-84xm301,-965r-313,0r0,-120r313,0r0,120","w":297},"(":{"d":"231,-850v3,562,243,838,572,1092v-152,58,-291,16,-425,-77v-205,-143,-345,-441,-345,-808v0,-536,252,-770,590,-993v2,10,6,9,6,20v0,10,-24,34,-73,73v-183,141,-327,353,-325,693","w":698},")":{"d":"481,-510v0,-564,-243,-839,-571,-1092v115,-47,238,-28,350,32v261,140,423,441,420,853v-2,314,-61,490,-218,679v-86,104,-209,209,-370,314r-6,-20v0,-10,24,-34,72,-72v182,-140,323,-356,323,-694","w":698},",":{"d":"301,-965r-313,0r0,-120r313,0r0,120xm162,-86v28,0,93,69,88,106v-13,87,-108,164,-199,173v21,-28,70,-56,74,-99v-6,-48,-31,-50,-68,-84","w":293},"-":{"d":"678,-965r-688,0r0,-120r688,0r0,120xm608,-594v-18,19,-89,56,-121,76r-405,0r119,-76r407,0","w":666},".":{"d":"375,-965r-385,0r0,-120r385,0r0,120xm70,-70r110,-88v23,9,96,68,125,90v-1,3,-119,84,-129,78v-4,4,-107,-79,-106,-80","w":358},"\/":{"d":"1141,-1636r-959,1904r-131,0r959,-1904r131,0","w":1184},"0":{"d":"63,-362v0,-182,82,-278,211,-363r0,-240r-284,0r0,-120r1085,0r0,120r-667,0r0,164v31,-22,80,-40,153,-37v240,6,434,139,434,377v0,189,-131,339,-279,413v-63,32,-136,48,-220,48v-246,-3,-433,-124,-433,-362xm604,-96v155,0,238,-120,238,-283v0,-231,-175,-360,-414,-360v-164,0,-271,254,-184,429v60,123,185,214,360,214","w":1059},"1":{"d":"403,-965r-417,0r0,-120r417,0r0,120xm272,100r-155,-102r0,-709v3,-39,-18,-66,-15,-110r170,-35r0,956","w":393},"2":{"d":"100,-709v28,-37,92,-73,129,-92r0,-164r-241,0r0,-120r1009,0r0,120r-626,0v3,16,2,88,2,117v126,-14,239,9,338,61v82,43,123,125,123,246v0,79,-31,152,-92,219v-61,67,-154,137,-279,209v174,2,321,-9,430,-71r-86,184r-725,0r41,-90v171,-13,355,-86,451,-188v55,-58,85,-123,85,-199v0,-236,-311,-299,-559,-232","w":983},"3":{"d":"303,-489v44,-12,126,-6,166,2v65,-69,71,-150,5,-215v-81,-79,-243,-49,-355,-23v38,-36,58,-68,114,-90r0,-150r-243,0r0,-120r856,0r0,120r-477,0r0,115v153,-26,341,12,336,172v-4,113,-68,154,-162,205v109,49,209,79,209,213v0,188,-209,260,-426,260v-74,0,-199,-28,-240,-70r164,-129v34,47,115,101,223,95v83,-4,115,-6,115,-86v0,-69,-44,-117,-125,-146v-97,-35,-207,-49,-324,-41","w":829},"4":{"d":"997,-965r-231,0r0,607r168,0r-76,98r-94,0r0,260r-176,0r0,-264r-522,0r152,-158r229,-231v83,-83,143,-137,180,-164r0,-148r-641,0r0,-120r1011,0r0,120xm588,-705v-2,-8,-12,-22,-23,-12v-184,182,-295,300,-329,359r354,0","w":991},"5":{"d":"633,-227v5,-153,-179,-210,-324,-211v-75,0,-138,15,-188,45r0,-438r418,0r0,-134r-555,0r0,-120r866,0r0,120r-191,0r0,131r70,5r-76,147v-103,-22,-251,-33,-442,-33r0,211v83,-27,225,-56,339,-25v114,31,236,75,236,205v0,209,-220,325,-467,324v-34,0,-168,-24,-200,-31r164,-139v43,32,155,58,227,57v91,-1,120,-22,123,-114","w":836},"6":{"d":"410,0v-246,3,-338,-153,-338,-385v0,-156,70,-276,147,-342r2,-238r-239,0r0,-120r946,0r0,120r-580,0r0,160v38,-23,110,-49,187,-49v142,0,234,43,305,111r-158,88v-46,-79,-179,-110,-324,-93v-53,20,-90,98,-113,170v-17,51,-25,109,-26,172v18,-25,54,-55,107,-93v86,-61,245,-74,359,-27v84,35,169,97,169,204v0,213,-208,320,-444,322xm418,-126v133,58,299,35,299,-114v0,-136,-146,-195,-275,-198v-94,-2,-177,34,-219,67v-2,127,103,205,195,245","w":920},"7":{"d":"842,-965r-582,0r0,134r514,-3r-383,834r-168,0v101,-147,188,-253,272,-433v40,-85,78,-181,113,-288v-195,-1,-398,49,-536,98r55,-217r0,-125r-137,0r0,-120r852,0r0,120","w":829},"8":{"d":"43,-588v0,-75,101,-157,141,-186r0,-191r-194,0r0,-120r813,0r0,120r-490,0r0,142v32,-15,78,-27,142,-25v118,2,243,27,243,143v0,66,-22,119,-66,160v-44,41,-81,68,-110,82v88,16,213,62,211,172v-2,133,-126,215,-235,255v-66,24,-128,36,-187,36v-110,0,-267,-68,-260,-176v7,-104,87,-145,168,-203v-69,-47,-176,-88,-176,-209xm446,-469v55,-10,93,-98,93,-158v0,-90,-115,-116,-209,-116v-73,0,-154,19,-154,88v0,113,182,163,270,186xm197,-268v0,93,145,168,235,168v144,0,194,-95,115,-170v-57,-54,-166,-83,-260,-92v-36,-3,-90,56,-90,94","w":795},"9":{"d":"397,-295v-172,0,-321,-80,-323,-240v0,-63,43,-126,129,-188r0,-242r-215,0r0,-120r946,0r0,120r-594,0r0,168v60,-27,113,-41,160,-41v239,0,350,129,350,371v0,192,-109,339,-240,409v-172,92,-352,71,-518,-32r137,-94v51,25,186,78,271,78v78,0,132,-35,160,-104v28,-69,42,-145,42,-230v-49,59,-169,145,-305,145xm199,-616v0,188,270,262,435,184v40,-19,60,-40,60,-57v0,-138,-158,-244,-305,-244v-127,0,-190,39,-190,117","w":930},":":{"d":"375,-965r-385,0r0,-120r385,0r0,120xm70,-696r110,-88v23,9,96,68,125,90v2,4,-121,85,-129,78v-7,2,-105,-75,-106,-80xm70,-123r110,-88v23,9,96,68,125,90v-1,3,-119,84,-129,78v-11,1,-101,-74,-106,-80","w":358},";":{"d":"375,-965r-385,0r0,-120r385,0r0,120xm70,-696r110,-88v23,9,96,68,125,90v2,4,-121,85,-129,78v-7,2,-105,-75,-106,-80xm162,-238v28,-1,93,69,88,105v-12,87,-109,164,-199,172v17,-23,77,-57,74,-98v-3,-50,-29,-47,-68,-84","w":358},"=":{"d":"678,-965r-688,0r0,-120r688,0r0,120xm608,-713v-14,14,-100,64,-121,76r-405,0r119,-76r407,0xm608,-553v-18,19,-89,56,-121,76r-405,0r119,-76r407,0","w":666},"?":{"d":"795,-965r-809,0r-2,-120r811,0r0,120xm399,-842v116,0,334,82,328,203v-7,135,-206,215,-276,283v-9,17,-13,53,-13,108r-162,47v-15,-5,-22,-28,-22,-67v0,-27,12,-51,34,-74v42,-44,166,-128,204,-176v22,-27,34,-56,34,-90v3,-142,-223,-149,-348,-125v-27,5,-69,25,-129,55v63,-82,201,-164,350,-164xm242,-68v14,-20,101,-89,125,-94v2,0,44,29,125,86v-23,19,-95,70,-123,76v-44,-9,-84,-49,-127,-68","w":782},"A":{"d":"549,-698v-181,-2,-286,60,-412,104r0,-74r43,-39r0,-258r-205,0r0,-120r1002,0r0,120r-666,0r0,160v7,-1,9,8,15,8v114,-40,327,-65,438,-10v140,70,144,214,143,432r0,385r-159,-65v0,-21,-4,-35,-13,-41v-89,55,-185,102,-338,98v-178,-4,-356,-86,-356,-258v0,-126,129,-220,239,-274v138,-67,361,-64,468,16r0,-92v-58,-69,-80,-90,-199,-92xm109,-188v14,56,96,72,165,73v190,0,344,-77,439,-168v24,-23,35,-40,35,-49v15,-59,-206,-108,-250,-108v-145,0,-272,74,-338,152v-34,41,-51,74,-51,100","w":973},"B":{"d":"39,-1817v175,149,297,393,297,732r760,0r0,120r-760,0r0,373v71,-82,200,-229,354,-229v176,0,286,112,340,240v76,180,-37,349,-136,439v-96,87,-262,202,-402,100v-37,-28,-92,-78,-164,-151r0,205r-174,-75r0,-902r-164,0r0,-120r164,0v-6,-325,-175,-567,-334,-732r219,0xm754,-104v118,0,190,-130,190,-252v0,-136,-115,-234,-224,-287v-79,-39,-168,-52,-246,-6v-45,27,-106,78,-116,123v9,128,121,275,214,347v63,49,123,75,182,75"},"C":{"d":"467,-858v90,0,177,29,223,59r0,-166r-706,0r0,-120r1075,0r0,120r-209,0r0,279v83,81,88,72,131,178r-133,0v3,-147,-92,-230,-232,-231v-171,0,-301,109,-366,225v-37,65,-55,128,-55,188v0,142,101,213,256,213v122,0,214,-52,258,-102r213,0v-39,116,-195,215,-342,215v-192,0,-379,-125,-466,-250v-92,-132,-112,-224,-26,-370v68,-115,201,-238,379,-238","w":1044},"D":{"d":"762,-1855v149,176,268,396,258,770r131,0r0,120r-131,0r-2,977r-182,-78r0,-143v-92,110,-157,209,-318,209v-154,0,-307,-135,-382,-249v-71,-109,-106,-199,-48,-319v62,-130,174,-268,365,-268v69,0,129,20,179,62v50,42,118,110,204,203r0,-394r-856,0r0,-120r856,0v11,-360,-112,-518,-267,-738v-6,-2,-6,-30,2,-32r191,0xm199,-350v0,122,83,233,190,233v140,0,271,-141,336,-240v42,-63,63,-114,63,-153v-1,-93,-133,-200,-243,-184v-154,22,-346,151,-346,344","w":1135},"E":{"d":"53,-252v1,-118,109,-157,193,-203v-50,-34,-125,-47,-125,-129v0,-157,198,-190,350,-210v55,-7,107,-9,156,-9r0,-162r-641,0r0,-120r1067,0r0,120r-273,0r0,197v26,5,53,17,68,27r0,118v-79,-27,-162,-41,-248,-41v-103,0,-297,43,-297,148v0,53,76,80,227,80r125,-6r0,92v-109,4,-252,6,-335,44v-49,22,-74,54,-74,101v1,86,127,132,223,131v251,-2,416,-133,526,-288r0,253v-170,113,-394,137,-635,79v-84,-20,-156,-50,-216,-88v-60,-38,-91,-83,-91,-134","w":1040},"F":{"d":"408,-1477v-129,0,-247,123,-162,243v22,31,46,64,78,93v6,13,8,40,8,56r332,0r0,120r-332,0r0,973v-7,0,-65,-26,-174,-78r0,-895r-170,0r0,-120r162,0v-15,-86,-143,-153,-130,-267v15,-136,134,-254,295,-252v182,2,295,100,314,265v-50,-78,-117,-138,-221,-138","w":647},"G":{"d":"135,-188v0,44,58,75,90,75v94,0,126,-37,219,-79v101,-46,186,-95,308,-95v209,0,278,259,288,449v7,135,-61,186,-180,186v-110,0,-135,-31,-232,-76v-98,-45,-159,-84,-282,-84v-294,0,-521,192,-625,412v-14,-100,9,-174,59,-272v75,-146,236,-287,449,-285v180,2,213,53,339,133v68,43,118,68,153,68v123,0,244,-87,244,-201v0,-105,-67,-186,-174,-186v-167,0,-307,145,-474,145v-87,0,-184,-87,-233,-149v-63,-79,-75,-136,2,-202v36,-31,74,-48,115,-52r2,-11v-37,-58,-90,-100,-90,-194v1,-182,185,-228,376,-230v30,-18,9,-87,15,-129r-518,0r0,-120r1028,0r0,120r-355,0r0,168v2,18,9,54,27,58v54,-14,62,-101,135,-97v77,4,134,73,154,138r-105,120v-2,-52,-27,-136,-79,-135v-12,0,-59,23,-52,39v12,31,38,73,37,125v-2,192,-145,215,-340,215v-122,0,-224,33,-273,89v-20,22,-28,42,-28,57xm225,-510v0,58,63,142,140,133v132,-16,286,-113,286,-264v0,-81,-43,-121,-129,-121v-110,1,-204,67,-254,136v-29,40,-43,79,-43,116","w":997},"H":{"d":"98,-1085v1,-319,-151,-549,-323,-678r202,-2v175,112,308,395,314,680r807,0r0,120r-807,0r0,301v77,-84,158,-172,319,-172v178,0,301,115,365,240v68,133,71,277,2,403v-50,91,-117,159,-178,209r-164,-98v93,-109,231,-219,231,-430v0,-130,-65,-240,-188,-236v-132,4,-264,108,-330,199v-41,57,-63,110,-63,162r0,397r-187,-100r0,-875r-110,0r0,-120r110,0"},"I":{"d":"338,-1190v-7,6,-40,5,-51,0v-48,-94,-79,-151,-92,-172v-36,-59,-137,-31,-166,-96v-17,-37,-27,-96,-58,-141r0,-23r39,0v78,24,133,46,166,66v78,50,67,63,101,170v18,57,36,108,59,153v2,17,2,21,2,43xm397,-965r-407,0r0,-120r407,0r0,120xm283,23r-168,-93r0,-772r168,0r0,865","w":389},"J":{"d":"406,-1190v-11,6,-38,4,-54,0v-53,-104,-85,-161,-92,-172v-39,-66,-161,-25,-175,-126v-5,-35,-30,-82,-48,-111r0,-23r41,0v167,56,228,68,267,238v13,55,34,105,56,151v3,20,5,34,5,43xm547,-965r-602,0r0,-120r602,0r0,120xm162,535v44,1,72,-39,71,-84r0,-1293r177,0r0,1227v-15,115,-132,200,-263,203v-110,2,-251,-106,-282,-187r155,-120v10,107,35,253,142,254","w":500,"k":{"J":-150,"j":-150}},"K":{"d":"43,-1786v137,144,230,401,229,701r660,0r0,120r-656,0r0,258v84,-41,184,-104,326,-104v128,0,291,90,285,227v-6,140,-142,219,-273,228r232,282r-127,92r-357,-424r66,-137v141,43,311,-3,311,-151v0,-53,-38,-80,-114,-80v-125,0,-238,130,-295,223v-37,60,-56,109,-56,148r0,419r-172,-77r0,-904r-127,0r0,-120r121,0v1,-282,-78,-471,-199,-624v-35,-46,-54,-72,-57,-77r203,0","w":920},"L":{"d":"442,-965r-106,0r0,-120r106,0r0,120xm100,-965r-114,0r0,-120r114,0r0,120xm63,-1798v136,136,240,344,240,592r0,1231v-51,-20,-122,-64,-172,-84r0,-1145v-14,-274,-141,-449,-281,-594r213,0","w":426},"M":{"d":"432,-842v135,-4,243,71,322,111v1,0,19,-8,55,-25v59,-27,143,-62,209,-73r2,-136r-1040,0r0,-120r1544,0r0,120r-330,0r2,140v166,65,258,142,258,358v0,252,-192,404,-360,483v-42,-16,-147,-133,-193,-176v152,-12,320,-111,406,-210v53,-61,82,-124,82,-191v0,-112,-104,-156,-218,-156v-238,0,-353,167,-397,377r-205,-84v-3,-89,60,-178,90,-231v2,-39,-97,-47,-135,-47v-216,0,-385,224,-270,431v64,116,197,217,278,304v-174,-63,-366,-175,-466,-322v-77,-113,-71,-265,6,-373v72,-100,205,-175,360,-180","w":1511},"N":{"d":"1065,-965r-1075,0r0,-120r1075,0r0,120xm850,-526v0,-160,-76,-240,-227,-240v-185,0,-289,156,-347,311v-51,137,-29,312,-34,488r-164,-86r0,-752r172,0r0,119v88,-69,184,-156,338,-156v193,0,315,124,372,272v93,243,-24,475,-159,613r-193,-121v67,-80,179,-161,216,-282v15,-48,26,-102,26,-166","w":1049},"O":{"d":"964,-520v98,342,-219,628,-559,484v-121,-51,-242,-148,-304,-260v-63,-112,-70,-212,-2,-329v63,-109,184,-214,356,-211v47,0,116,12,207,37v4,0,6,-3,6,-8r0,-158r-686,0r0,-120r1085,0r0,120r-225,0r0,275v34,53,100,92,122,170xm199,-287v0,103,100,181,207,181v168,0,312,-127,385,-251v30,-51,45,-106,45,-165v0,-170,-165,-249,-324,-180v-157,68,-313,194,-313,415","w":1049},"P":{"d":"1135,-965r-1147,0r0,-120r1147,0r0,120xm1016,-568v113,214,-45,437,-190,514v-132,70,-227,80,-348,-7v-59,-42,-132,-104,-218,-185r0,848r-160,-84r0,-1323r156,0r0,244r60,-64v61,-63,138,-134,219,-183v153,-94,296,19,379,99v42,41,75,89,102,141xm956,-528v0,-87,-74,-188,-178,-181v-187,13,-339,166,-426,291v-51,74,-73,116,-12,176v41,39,123,79,199,78v192,-4,320,-124,387,-254v21,-41,30,-78,30,-110","w":1116},"Q":{"d":"1167,-1085r-2,120r-1177,0r0,-120r1179,0xm879,-260v-69,73,-269,277,-418,264v-159,-14,-279,-134,-339,-261v-55,-117,-59,-220,12,-345v58,-102,165,-246,294,-246v192,0,350,148,451,285r0,-215r180,0r0,1313r-180,94r0,-889xm379,-694v-91,-11,-206,77,-207,155v0,31,15,77,44,138v58,117,180,237,357,237v94,0,180,-36,227,-79v23,-21,34,-39,34,-52v0,-57,-31,-114,-90,-177v-78,-84,-256,-208,-365,-222","w":1151},"R":{"d":"1001,-965r-1011,0r0,-120r1011,0r0,120xm309,-727v93,-65,285,-159,441,-85v78,37,164,103,168,206v4,86,-142,201,-197,227r-150,-170v92,-3,199,-83,199,-164v0,-37,-64,-85,-119,-80v-118,10,-231,119,-287,215v-37,64,-57,127,-57,191r0,424r-192,-100r0,-740r194,0r0,76","w":983},"S":{"d":"329,-818v150,-45,322,-10,451,23r0,-170r-796,0r0,-120r1032,0r0,120r-109,0r0,379v-119,-60,-324,-108,-501,-70v-93,20,-226,53,-226,148v0,39,34,83,84,80v130,-8,239,-98,393,-90v156,8,299,74,299,227v0,177,-190,273,-358,293v65,59,102,84,182,66r101,165v-55,37,-209,39,-253,-20v-25,-34,-58,-74,-88,-127v-30,-53,-56,-80,-75,-80v-111,-6,-209,-18,-285,-67v-41,-27,-63,-62,-63,-107v0,-87,113,-100,177,-70v79,37,141,107,271,101v87,-4,221,-33,285,-71v43,-25,65,-53,65,-87v0,-83,-120,-86,-199,-65r-160,43v-155,42,-170,50,-288,-7v-88,-42,-169,-144,-170,-266v-1,-133,121,-195,231,-228","w":1006},"T":{"d":"807,-252v-64,135,-162,258,-356,254v-139,-3,-252,-105,-252,-238r0,-729r-209,0r0,-120r209,0r0,-336r180,125r0,211r506,0r0,120r-506,0r0,805v-2,41,39,101,78,101v99,0,149,-103,149,-308","w":872},"U":{"d":"819,-123v-92,64,-170,128,-323,123v-223,-7,-404,-163,-404,-389r0,-576r-121,0r0,-120r1149,0r0,120r-837,0r0,641v7,141,67,271,209,271v211,0,329,-159,329,-350r0,-398r203,0r0,852v-39,-22,-150,-69,-205,-94r0,-80","w":1112},"V":{"d":"309,-838v237,-5,292,155,263,380v-14,109,-20,315,46,315v20,0,46,-25,74,-76r305,-551r0,-195r-1013,0r0,-120r1298,0r-2,120r-102,0r0,191r-439,776v-148,-32,-280,-167,-347,-296v-43,-82,-58,-201,-27,-290v13,-38,70,-94,73,-133v4,-45,-94,-41,-122,-16v-16,14,-47,42,-87,88r-129,-117v62,-50,103,-74,209,-76","w":1274},"W":{"d":"1004,-139v161,-5,310,-89,309,-240r-2,-586r-1325,0r0,-120r1593,0r-2,120r-92,0r0,615v1,158,-133,262,-247,310v-114,49,-179,53,-283,14v-62,-23,-104,-55,-150,-91v-56,47,-185,124,-311,117v-133,-7,-261,-98,-327,-191v-105,-148,-65,-371,37,-495v66,-81,120,-135,163,-164r151,160v-100,94,-272,200,-276,393v-2,118,42,210,151,211v235,3,341,-205,369,-399r192,98v-5,78,-47,158,-82,203v22,26,67,47,132,45","w":1565},"X":{"d":"111,-846v221,-11,272,205,319,361r215,-273v28,-47,9,-138,14,-207r-675,0r0,-120r985,0r0,120r-119,0r-2,205v-3,37,1,33,-17,55r-307,379v11,70,86,142,164,142v87,0,176,-87,213,-150r0,318v-31,54,-211,39,-261,0v-66,-51,-89,-103,-118,-190v-13,-42,-24,-68,-33,-77r-239,283r-244,0r373,-424v0,-109,-46,-142,-146,-145v-45,-1,-80,5,-122,6r0,-283","w":963},"Y":{"d":"879,-176v-58,64,-177,111,-347,106v-227,-7,-419,-121,-419,-342r0,-553r-142,0r0,-120r1178,0r-2,120r-844,0r2,590v5,179,42,260,223,260v131,0,234,-96,286,-189v31,-54,46,-106,46,-155r-2,-377r209,72r0,1024v-8,220,-169,333,-348,386v-271,80,-599,-18,-713,-169v-69,-91,-83,-158,-26,-247v65,-102,201,-169,360,-175r127,170v-93,8,-225,32,-309,73v-58,28,-88,60,-88,103v33,119,158,207,331,203v252,-6,478,-126,478,-373r0,-407","w":1135},"Z":{"d":"37,-111v5,-125,190,-198,330,-170r376,-454v-191,4,-485,33,-661,100r82,-196r0,-134r-178,0r0,-122r1181,0r0,122r-878,0r0,117r772,0r-539,629v71,47,210,112,338,110v120,-3,171,-29,199,-133v41,155,-70,274,-223,275v-182,1,-296,-68,-410,-133v-37,46,-124,110,-229,104v-63,-4,-163,-45,-160,-115","w":1145},"\\":{"d":"1143,268r-133,0r-959,-1904r133,0","w":1184},"`":{"d":"338,-1190v-7,6,-40,5,-51,0v-48,-94,-79,-151,-92,-172v-36,-59,-137,-31,-166,-96v-17,-37,-27,-96,-58,-141r0,-23r39,0v78,24,133,46,166,66v78,50,67,63,101,170v18,57,36,108,59,153v2,17,2,21,2,43","w":389},"a":{"d":"545,-698v-181,-2,-286,60,-412,104r0,-74r43,-39r0,-258r-205,0r0,-120r1002,0r0,120r-666,0r0,160v7,-1,9,8,15,8v113,-41,328,-65,438,-10v141,69,144,214,143,432r0,395v-54,-21,-121,-53,-160,-75v0,-22,-4,-36,-12,-41v-89,55,-185,102,-338,98v-178,-4,-356,-86,-356,-258v0,-126,129,-220,239,-274v137,-67,360,-64,467,16r0,-92v-54,-67,-82,-91,-198,-92xm104,-188v16,57,95,72,166,73v190,0,346,-77,439,-169v23,-23,34,-40,34,-48v15,-59,-205,-108,-249,-108v-145,0,-273,75,-339,152v-34,40,-51,74,-51,100","w":961},"b":{"d":"39,-1817v175,149,297,393,297,732r760,0r0,120r-760,0r0,373v71,-82,200,-229,354,-229v176,0,286,112,340,240v76,180,-37,349,-136,439v-96,87,-262,202,-402,100v-37,-28,-92,-78,-164,-151r0,205r-174,-75r0,-902r-164,0r0,-120r164,0v-6,-325,-175,-567,-334,-732r219,0xm754,-104v118,0,190,-130,190,-252v0,-136,-115,-234,-224,-287v-79,-39,-168,-52,-246,-6v-45,27,-106,78,-116,123v9,128,121,275,214,347v63,49,123,75,182,75"},"c":{"d":"467,-858v90,0,177,29,223,59r0,-166r-706,0r0,-120r1075,0r0,120r-209,0r0,279v83,81,88,72,131,178r-133,0v3,-147,-92,-230,-232,-231v-171,0,-301,109,-366,225v-37,65,-55,128,-55,188v0,142,101,213,256,213v122,0,214,-52,258,-102r213,0v-39,116,-195,215,-342,215v-192,0,-379,-125,-466,-250v-92,-132,-112,-224,-26,-370v68,-115,201,-238,379,-238","w":1044},"d":{"d":"762,-1855v149,176,268,396,258,770r131,0r0,120r-131,0r-2,977r-182,-78r0,-143v-92,110,-157,209,-318,209v-154,0,-307,-135,-382,-249v-71,-109,-106,-199,-48,-319v62,-130,174,-268,365,-268v69,0,129,20,179,62v50,42,118,110,204,203r0,-394r-856,0r0,-120r856,0v11,-360,-112,-518,-267,-738v-6,-2,-6,-30,2,-32r191,0xm199,-350v0,122,83,233,190,233v140,0,271,-141,336,-240v42,-63,63,-114,63,-153v-1,-93,-133,-200,-243,-184v-154,22,-346,151,-346,344","w":1135},"e":{"d":"53,-252v1,-118,109,-157,193,-203v-50,-34,-125,-47,-125,-129v0,-157,198,-190,350,-210v55,-7,107,-9,156,-9r0,-162r-641,0r0,-120r1067,0r0,120r-273,0r0,197v26,5,53,17,68,27r0,118v-79,-27,-162,-41,-248,-41v-103,0,-297,43,-297,148v0,53,76,80,227,80r125,-6r0,92v-109,4,-252,6,-335,44v-49,22,-74,54,-74,101v1,86,127,132,223,131v251,-2,416,-133,526,-288r0,253v-170,113,-394,137,-635,79v-84,-20,-156,-50,-216,-88v-60,-38,-91,-83,-91,-134","w":1040},"f":{"d":"408,-1477v-129,0,-247,123,-162,243v22,31,46,64,78,93v6,13,8,40,8,56r332,0r0,120r-332,0r0,973v-7,0,-65,-26,-174,-78r0,-895r-170,0r0,-120r162,0v-15,-86,-143,-153,-130,-267v15,-136,134,-254,295,-252v182,2,295,100,314,265v-50,-78,-117,-138,-221,-138","w":647},"g":{"d":"150,-188v0,43,58,75,90,75v94,0,126,-37,219,-79v102,-46,184,-95,307,-95v209,0,279,257,289,449v7,135,-63,186,-181,186v-114,0,-122,-28,-226,-74v-105,-47,-161,-86,-288,-86v-294,0,-520,193,-624,412v-19,-153,55,-287,134,-380v81,-95,208,-177,374,-177v182,0,209,51,337,132v69,44,119,69,154,69v123,0,244,-87,244,-201v0,-105,-66,-186,-174,-186v-145,0,-328,145,-473,145v-86,0,-185,-87,-234,-148v-63,-79,-75,-137,2,-203v36,-31,74,-48,115,-52r4,-11v-37,-60,-93,-98,-92,-194v1,-183,185,-228,377,-230v9,0,12,-12,14,-18r0,-111r-518,0r0,-120r1028,0r0,120r-352,0r0,168v1,19,6,54,24,58v52,-14,65,-100,136,-97v76,3,134,73,153,138r-104,120v1,-49,-29,-138,-80,-135v-12,0,-55,22,-51,39v15,30,38,73,37,125v-2,192,-145,215,-340,215v-104,0,-181,17,-229,52v-48,35,-72,66,-72,94xm240,-510v0,59,62,142,139,133v132,-16,289,-112,289,-264v0,-81,-43,-121,-129,-121v-110,0,-207,68,-256,137v-29,39,-43,78,-43,115","w":997},"h":{"d":"98,-1085v1,-319,-151,-549,-323,-678r202,-2v175,112,308,395,314,680r807,0r0,120r-807,0r0,301v77,-84,158,-172,319,-172v178,0,301,115,365,240v68,133,71,277,2,403v-50,91,-117,159,-178,209r-164,-98v93,-109,231,-219,231,-430v0,-130,-65,-240,-188,-236v-132,4,-264,108,-330,199v-41,57,-63,110,-63,162r0,397r-187,-100r0,-875r-110,0r0,-120r110,0"},"i":{"d":"338,-1190v-7,6,-40,5,-51,0v-48,-94,-79,-151,-92,-172v-36,-59,-137,-31,-166,-96v-17,-37,-27,-96,-58,-141r0,-23r39,0v78,24,133,46,166,66v78,50,67,63,101,170v18,57,36,108,59,153v2,17,2,21,2,43xm397,-965r-407,0r0,-120r407,0r0,120xm283,23r-168,-93r0,-772r168,0r0,865","w":389},"j":{"d":"406,-1190v-11,6,-38,4,-54,0v-53,-104,-85,-161,-92,-172v-39,-66,-161,-25,-175,-126v-5,-35,-30,-82,-48,-111r0,-23r41,0v167,56,228,68,267,238v13,55,34,105,56,151v3,20,5,34,5,43xm547,-965r-602,0r0,-120r602,0r0,120xm162,535v44,1,72,-39,71,-84r0,-1293r177,0r0,1227v-15,115,-132,200,-263,203v-110,2,-251,-106,-282,-187r155,-120v10,107,35,253,142,254","w":500,"k":{"J":-150,"j":-150}},"k":{"d":"43,-1786v137,144,230,401,229,701r660,0r0,120r-656,0r0,258v84,-41,184,-104,326,-104v128,0,291,90,285,227v-6,140,-142,219,-273,228r232,282r-127,92r-357,-424r66,-137v141,43,311,-3,311,-151v0,-53,-38,-80,-114,-80v-125,0,-238,130,-295,223v-37,60,-56,109,-56,148r0,419r-172,-77r0,-904r-127,0r0,-120r121,0v1,-282,-78,-471,-199,-624v-35,-46,-54,-72,-57,-77r203,0","w":920},"l":{"d":"442,-965r-106,0r0,-120r106,0r0,120xm100,-965r-114,0r0,-120r114,0r0,120xm63,-1798v136,136,240,344,240,592r0,1231v-51,-20,-122,-64,-172,-84r0,-1145v-14,-274,-141,-449,-281,-594r213,0","w":426},"m":{"d":"432,-842v135,-4,243,71,322,111v1,0,19,-8,55,-25v59,-27,143,-62,209,-73r2,-136r-1040,0r0,-120r1544,0r0,120r-330,0r2,140v166,65,258,142,258,358v0,252,-192,404,-360,483v-42,-16,-147,-133,-193,-176v152,-12,320,-111,406,-210v53,-61,82,-124,82,-191v0,-112,-104,-156,-218,-156v-238,0,-353,167,-397,377r-205,-84v-3,-89,60,-178,90,-231v2,-39,-97,-47,-135,-47v-216,0,-385,224,-270,431v64,116,197,217,278,304v-174,-63,-366,-175,-466,-322v-77,-113,-71,-265,6,-373v72,-100,205,-175,360,-180","w":1511},"n":{"d":"1065,-965r-1075,0r0,-120r1075,0r0,120xm850,-526v0,-160,-76,-240,-227,-240v-185,0,-289,156,-347,311v-51,137,-29,312,-34,488r-164,-86r0,-752r172,0r0,119v88,-69,184,-156,338,-156v193,0,315,124,372,272v93,243,-24,475,-159,613r-193,-121v67,-80,179,-161,216,-282v15,-48,26,-102,26,-166","w":1049},"o":{"d":"964,-520v98,342,-219,628,-559,484v-121,-51,-242,-148,-304,-260v-63,-112,-70,-212,-2,-329v63,-109,184,-214,356,-211v47,0,116,12,207,37v4,0,6,-3,6,-8r0,-158r-686,0r0,-120r1085,0r0,120r-225,0r0,275v34,53,100,92,122,170xm199,-287v0,103,100,181,207,181v168,0,312,-127,385,-251v30,-51,45,-106,45,-165v0,-170,-165,-249,-324,-180v-157,68,-313,194,-313,415","w":1049},"p":{"d":"1135,-965r-1147,0r0,-120r1147,0r0,120xm1016,-568v113,214,-45,437,-190,514v-132,70,-227,80,-348,-7v-59,-42,-132,-104,-218,-185r0,848r-160,-84r0,-1323r156,0r0,244r60,-64v61,-63,138,-134,219,-183v153,-94,296,19,379,99v42,41,75,89,102,141xm956,-528v0,-87,-74,-188,-178,-181v-187,13,-339,166,-426,291v-51,74,-73,116,-12,176v41,39,123,79,199,78v192,-4,320,-124,387,-254v21,-41,30,-78,30,-110","w":1116},"q":{"d":"1167,-1085r-2,120r-1177,0r0,-120r1179,0xm879,-260v-69,73,-269,277,-418,264v-159,-14,-279,-134,-339,-261v-55,-117,-59,-220,12,-345v58,-102,165,-246,294,-246v192,0,350,148,451,285r0,-215r180,0r0,1313r-180,94r0,-889xm379,-694v-91,-11,-206,77,-207,155v0,31,15,77,44,138v58,117,180,237,357,237v94,0,180,-36,227,-79v23,-21,34,-39,34,-52v0,-57,-31,-114,-90,-177v-78,-84,-256,-208,-365,-222","w":1151},"r":{"d":"1001,-965r-1011,0r0,-120r1011,0r0,120xm309,-727v93,-65,285,-159,441,-85v78,37,164,103,168,206v4,86,-142,201,-197,227r-150,-170v92,-3,199,-83,199,-164v0,-37,-64,-85,-119,-80v-118,10,-231,119,-287,215v-37,64,-57,127,-57,191r0,424r-192,-100r0,-740r194,0r0,76","w":983},"s":{"d":"329,-818v150,-45,322,-10,451,23r0,-170r-796,0r0,-120r1032,0r0,120r-109,0r0,379v-119,-60,-324,-108,-501,-70v-93,20,-226,53,-226,148v0,39,34,83,84,80v130,-8,239,-98,393,-90v156,8,299,74,299,227v0,177,-190,273,-358,293v65,59,102,84,182,66r101,165v-55,37,-209,39,-253,-20v-25,-34,-58,-74,-88,-127v-30,-53,-56,-80,-75,-80v-111,-6,-209,-18,-285,-67v-41,-27,-63,-62,-63,-107v0,-87,113,-100,177,-70v79,37,141,107,271,101v87,-4,221,-33,285,-71v43,-25,65,-53,65,-87v0,-83,-120,-86,-199,-65r-160,43v-155,42,-170,50,-288,-7v-88,-42,-169,-144,-170,-266v-1,-133,121,-195,231,-228","w":1006},"t":{"d":"807,-252v-64,135,-162,258,-356,254v-139,-3,-252,-105,-252,-238r0,-729r-209,0r0,-120r209,0r0,-336r180,125r0,211r506,0r0,120r-506,0r0,805v-2,41,39,101,78,101v99,0,149,-103,149,-308","w":872},"u":{"d":"819,-123v-92,64,-170,128,-323,123v-223,-7,-404,-163,-404,-389r0,-576r-121,0r0,-120r1149,0r0,120r-837,0r0,641v7,141,67,271,209,271v211,0,329,-159,329,-350r0,-398r203,0r0,852v-39,-22,-150,-69,-205,-94r0,-80","w":1112},"v":{"d":"309,-838v237,-5,292,155,263,380v-14,109,-20,315,46,315v20,0,46,-25,74,-76r305,-551r0,-195r-1013,0r0,-120r1298,0r-2,120r-102,0r0,191r-439,776v-148,-32,-280,-167,-347,-296v-43,-82,-58,-201,-27,-290v13,-38,70,-94,73,-133v4,-45,-94,-41,-122,-16v-16,14,-47,42,-87,88r-129,-117v62,-50,103,-74,209,-76","w":1274},"w":{"d":"1004,-139v161,-5,310,-89,309,-240r-2,-586r-1325,0r0,-120r1593,0r-2,120r-92,0r0,615v1,158,-133,262,-247,310v-114,49,-179,53,-283,14v-62,-23,-104,-55,-150,-91v-56,47,-185,124,-311,117v-133,-7,-261,-98,-327,-191v-105,-148,-65,-371,37,-495v66,-81,120,-135,163,-164r151,160v-100,94,-272,200,-276,393v-2,118,42,210,151,211v235,3,341,-205,369,-399r192,98v-5,78,-47,158,-82,203v22,26,67,47,132,45","w":1565},"x":{"d":"111,-846v221,-11,272,205,319,361r215,-273v28,-47,9,-138,14,-207r-675,0r0,-120r985,0r0,120r-119,0r-2,205v-3,37,1,33,-17,55r-307,379v11,70,86,142,164,142v87,0,176,-87,213,-150r0,318v-31,54,-211,39,-261,0v-66,-51,-89,-103,-118,-190v-13,-42,-24,-68,-33,-77r-239,283r-244,0r373,-424v0,-109,-46,-142,-146,-145v-45,-1,-80,5,-122,6r0,-283","w":963},"y":{"d":"879,-176v-58,64,-177,111,-347,106v-227,-7,-419,-121,-419,-342r0,-553r-142,0r0,-120r1178,0r-2,120r-844,0r2,590v5,179,42,260,223,260v131,0,234,-96,286,-189v31,-54,46,-106,46,-155r-2,-377r209,72r0,1024v-8,220,-169,333,-348,386v-271,80,-599,-18,-713,-169v-69,-91,-83,-158,-26,-247v65,-102,201,-169,360,-175r127,170v-93,8,-225,32,-309,73v-58,28,-88,60,-88,103v33,119,158,207,331,203v252,-6,478,-126,478,-373r0,-407","w":1135},"z":{"d":"37,-111v5,-125,190,-198,330,-170r376,-454v-191,4,-485,33,-661,100r82,-196r0,-134r-178,0r0,-122r1181,0r0,122r-878,0r0,117r772,0r-539,629v71,47,210,112,338,110v120,-3,171,-29,199,-133v41,155,-70,274,-223,275v-182,1,-296,-68,-410,-133v-37,46,-124,110,-229,104v-63,-4,-163,-45,-160,-115","w":1145},"|":{"d":"240,266r-121,-73r0,-1829r121,0r0,1902","w":358},"\u00a0":{"w":666}}});
/*!
 * The following copyright notice may not be removed under any circumstances.
 * 
 * Copyright:
 * (c) 1993 Titivillus Foundry/Ethel Enterprises. **All rights reserved.**Generated
 * by Fontographer 3.5
 */
Raphael.registerFont({"w":1087,"face":{"font-family":"Samarkan Oblique","font-weight":400,"font-style":"oblique","font-stretch":"normal","units-per-em":"2048","panose-1":"2 11 5 0 0 0 0 0 0 0","ascent":"1638","descent":"-410","cap-height":"23","bbox":"-408 -1855 1808 674.595","underline-thickness":"20","underline-position":"-123","unicode-range":"U+0020-U+007C"},"glyphs":{" ":{"w":666},"!":{"d":"713,-1636r-136,497v-61,227,-118,449,-169,666r-185,98r213,-1214xm436,-176v-45,51,-116,117,-190,176v-21,-16,-69,-73,-144,-170r156,-140v29,-25,46,-38,49,-38","w":451},"\"":{"d":"758,-1423v-6,20,49,90,53,98v-71,4,-162,-98,-162,-172v0,-33,83,-107,113,-107r84,97v-33,24,-75,42,-88,84xm465,-1423v-6,20,49,90,53,98v-71,4,-167,-98,-162,-172v2,-35,81,-106,113,-107r84,97v-33,24,-75,42,-88,84xm823,-1085v-10,39,-13,85,-26,120r-604,0r26,-120r604,0","w":584},"$":{"d":"424,-350v-105,-26,-256,-55,-225,-195v24,-108,209,-199,311,-233r39,-187r-363,0r25,-120r799,0r-27,120r-340,0r-37,170v104,-2,183,31,236,70r-152,111r-112,-62r-43,207v39,5,87,20,145,45v58,25,86,68,86,129v-21,87,-121,163,-200,207v-50,28,-91,42,-122,45r-18,90r-84,0r16,-80v-114,0,-197,-22,-249,-65r131,-111v20,19,107,48,145,47xm500,-694v-63,0,-171,24,-178,76v-10,76,83,115,133,126xm598,-160v40,-9,53,-28,53,-71v0,-55,-48,-88,-145,-101r-41,187v62,-4,107,-9,133,-15","w":770},"&":{"d":"658,-80v-132,118,-553,122,-574,-100v18,-150,169,-205,278,-266v15,-9,18,-13,5,-23v-63,-8,-164,-60,-156,-143v61,-145,273,-234,491,-234r23,-119r-537,0r27,-120r860,0r-26,120r-203,0r-37,168r-133,76v-53,-61,-301,-101,-324,29v3,103,123,129,227,140r160,17r-92,93v-113,0,-246,34,-319,79v-42,25,-65,52,-72,82v11,107,143,181,287,181v70,0,110,-16,119,-47v-2,-35,-85,-105,-136,-105r-174,0r6,-27v15,0,43,-21,54,-26v131,-6,264,17,370,-19v39,-13,70,-26,92,-38v-38,60,-85,103,-149,131v19,62,-24,114,-67,151","w":823},"'":{"d":"332,-1325v5,-8,102,-77,96,-98v0,-43,-28,-60,-49,-84r123,-97v34,11,70,58,67,107v-4,65,-163,177,-237,172xm506,-965r-313,0r26,-120r311,0","w":297},"(":{"d":"375,-526v0,373,167,571,377,768v-126,48,-254,27,-364,-46v-150,-98,-251,-301,-249,-558v2,-249,68,-476,154,-644v140,-274,369,-454,676,-630v1,7,2,13,2,20v0,10,-30,35,-87,73v-222,148,-406,367,-472,693v-24,116,-37,223,-37,324","w":698},")":{"d":"629,-836v0,-376,-173,-574,-377,-766v183,-71,368,25,462,132v138,156,177,477,120,753v-105,506,-400,763,-801,993v0,-10,0,-13,-2,-20v2,-10,32,-35,90,-74v224,-148,404,-365,469,-692v25,-127,39,-235,39,-326","w":698},",":{"d":"506,-965r-313,0r26,-120r311,0xm104,94v-2,-47,-22,-53,-49,-84r125,-96v30,2,71,64,66,106v-29,81,-136,164,-236,173v26,-28,82,-58,94,-99","w":293},"-":{"d":"885,-965r-690,0r24,-120r690,0xm735,-594v-25,18,-100,56,-137,76r-405,0r135,-76r407,0","w":666},".":{"d":"580,-965r-383,0r24,-120r385,0xm319,-68v-44,24,-93,63,-143,78v-9,3,-91,-76,-92,-80v5,-4,28,-20,67,-47v39,-27,61,-41,64,-41v26,18,76,65,104,90","w":358},"\/":{"d":"1489,-1636r-1364,1904r-131,0r1362,-1904r133,0","w":1184},"0":{"d":"496,0v-233,1,-406,-121,-357,-362v36,-176,144,-279,289,-363r51,-240r-284,0r24,-120r1086,0r-25,120r-668,0r-34,164v34,-21,87,-38,161,-37v226,4,409,137,355,377v-41,182,-198,336,-368,413v-70,32,-147,48,-230,48xm625,-96v183,-7,307,-158,307,-361v0,-191,-148,-281,-348,-282v-152,32,-277,178,-283,358v-6,170,151,292,324,285","w":1059},"1":{"d":"608,-965r-418,0r25,-120r418,0xm268,-711v4,-29,-1,-77,8,-110r179,-35r-205,956r-133,-102","w":393},"2":{"d":"193,-965v1,-19,20,-100,24,-120r1012,0r-25,120r-629,0v-1,19,-18,96,-22,117v192,-16,409,27,403,232v-3,101,-30,160,-83,227v-92,116,-233,197,-386,276v188,-2,323,-7,445,-71r-125,184r-725,0r61,-90v268,-29,566,-144,617,-387v53,-251,-268,-292,-510,-232v34,-36,107,-74,149,-92r35,-164r-241,0","w":983},"3":{"d":"406,-489v45,-12,124,-6,165,2v78,-71,114,-148,44,-221v-43,-45,-73,-44,-156,-44v-65,0,-127,11,-185,27v35,-27,80,-75,134,-90r30,-150r-243,0r24,-120r856,0r-24,120r-478,0r-24,115v124,-23,315,1,305,135v-10,137,-95,187,-213,242v100,47,197,80,166,213v-41,176,-247,260,-481,260v-70,0,-192,-28,-226,-70r193,-129v27,51,96,100,203,95v87,-4,116,-11,131,-86v-1,-169,-230,-195,-408,-187","w":829},"4":{"d":"1204,-965r-233,0r-129,607r168,0r-97,98r-94,0r-55,260r-176,0r57,-264r-524,0r333,-281r212,-173v56,-44,102,-77,135,-99r30,-148r-641,0r25,-120r1014,0xm666,-358r73,-347v-1,-10,-11,-21,-22,-12r-243,202v-82,71,-136,123,-163,157r355,0","w":991},"5":{"d":"686,-264v0,-134,-150,-174,-285,-174v-74,0,-139,15,-196,45r94,-438r416,0r28,-134r-555,0r25,-120r868,0r-26,120r-191,0r-28,131r69,5r-106,147v-99,-22,-244,-33,-437,-33r-43,211v50,-16,156,-42,234,-39v146,7,341,61,303,219v-47,196,-272,324,-537,324v-34,0,-162,-24,-194,-31r192,-139v40,33,147,57,218,57v108,0,151,-50,151,-151","w":836},"6":{"d":"135,-244v0,-152,51,-288,123,-370v49,-57,88,-94,117,-113r51,-238r-240,0r25,-120r946,0r-24,120r-580,0r-35,160v42,-22,117,-49,197,-49v144,0,219,40,282,111r-174,88v-29,-80,-158,-112,-305,-93v-60,21,-113,99,-150,168v-27,50,-48,108,-63,174v60,-58,203,-157,348,-149v146,8,300,76,269,233v-30,155,-168,246,-320,294v-60,18,-124,28,-192,28v-183,0,-275,-81,-275,-244xm569,-96v124,5,203,-66,203,-183v0,-204,-359,-181,-469,-92v-36,173,120,270,266,275","w":920},"7":{"d":"1047,-965r-582,0r-29,134r516,-3r-561,834r-168,0v133,-148,238,-248,361,-428v58,-85,118,-182,178,-293v-200,0,-414,49,-559,98r102,-217r27,-125r-137,0r24,-120r852,0","w":829},"8":{"d":"90,-176v27,-99,116,-145,209,-203v-63,-48,-153,-90,-129,-209v14,-70,130,-156,178,-186r41,-191r-192,0r22,-120r813,0r-24,120r-490,0r-29,142v99,-42,370,-46,363,92v-7,136,-136,223,-231,268v71,13,207,59,174,172v-51,177,-271,283,-484,291v-110,4,-225,-63,-221,-176xm315,-655v-10,110,148,164,230,186v62,-12,109,-101,127,-158v2,-85,-97,-116,-183,-116v-80,0,-168,19,-174,88xm254,-268v-7,99,109,169,201,168v100,0,157,-32,170,-97v-5,-109,-158,-157,-260,-165v-38,-3,-108,58,-111,94","w":795},"9":{"d":"459,-295v-164,0,-303,-73,-273,-240v11,-61,69,-123,170,-188r52,-242r-215,0r24,-120r948,0r-26,120r-594,0r-35,168v65,-27,121,-41,168,-41v183,-1,287,74,287,248v0,267,-158,439,-343,532v-176,88,-359,78,-511,-32r157,-94v48,26,169,78,254,78v77,0,138,-35,182,-106v44,-71,74,-147,91,-228v-58,55,-199,145,-336,145xm326,-584v-5,104,123,183,227,183v71,0,128,-10,173,-31v45,-21,69,-40,73,-57v-7,-140,-109,-244,-254,-244v-141,0,-213,41,-219,149","w":930},":":{"d":"580,-965r-383,0r24,-120r385,0xm453,-694v1,2,-139,85,-146,78v-7,2,-91,-74,-90,-80v5,-4,28,-20,67,-47v39,-27,61,-41,64,-41v35,23,72,62,105,90xm96,-123r129,-88v35,23,72,62,105,90v-43,24,-96,66,-144,78v-12,3,-87,-72,-90,-80","w":358},";":{"d":"580,-965r-383,0r24,-120r385,0xm453,-694v1,2,-139,85,-146,78v-7,2,-91,-74,-90,-80v5,-4,28,-20,67,-47v39,-27,61,-41,64,-41v35,23,72,62,105,90xm137,-59v-2,-47,-22,-53,-49,-84r123,-95v34,12,68,57,68,105v-27,81,-137,163,-236,172v22,-24,86,-59,94,-98","w":358},"=":{"d":"885,-965r-690,0r24,-120r690,0xm760,-713v-15,11,-115,66,-137,76r-404,0r133,-76r408,0xm725,-553v-23,19,-100,56,-137,76r-404,0r133,-76r408,0","w":666},"?":{"d":"999,-965r-809,0r25,-120r809,0xm193,-678v101,-98,311,-213,507,-142v77,28,161,85,162,181v-43,141,-232,204,-336,283v-19,27,-25,65,-34,108r-173,47v-19,-14,-18,-33,-8,-67v24,-79,91,-103,169,-158v83,-59,149,-89,175,-182v3,-143,-198,-148,-320,-126v-28,5,-75,25,-142,56xm256,-68v28,-25,114,-84,145,-94v5,0,40,29,107,86v-25,18,-111,70,-139,76v-22,-3,-93,-58,-113,-68","w":782},"A":{"d":"877,-606v-44,-72,-65,-92,-179,-92v-188,-1,-297,60,-434,104r15,-74v13,-8,42,-31,51,-39r55,-258r-205,0r27,-120r1001,0r-26,120r-666,0r-33,160v6,0,4,9,11,8v-9,0,20,-7,86,-21v205,-45,456,-39,448,185v-3,93,-20,164,-41,258r-84,385r-145,-65v1,-13,5,-34,-2,-41v-99,52,-200,98,-359,98v-159,0,-347,-90,-301,-258v51,-185,297,-320,545,-324v83,-2,174,31,215,66xm147,-188v0,60,83,72,152,73v170,3,340,-72,438,-142v51,-37,77,-62,80,-75v-8,-73,-155,-108,-225,-108v-183,0,-321,93,-408,188v-25,28,-37,50,-37,64","w":973},"B":{"d":"426,-1817v100,110,167,260,168,480v0,81,-10,165,-29,252r760,0r-25,120r-757,0r-80,373v69,-65,260,-235,401,-229v197,8,324,158,289,362v-29,165,-203,317,-341,393v-80,44,-145,66,-196,66v-46,0,-84,-13,-114,-40v-30,-27,-75,-78,-133,-153r-43,205r-158,-75r190,-902r-163,0r24,-120r164,0v65,-290,-55,-580,-178,-732r221,0xm776,-104v109,2,228,-153,246,-252v-5,-139,-74,-241,-174,-292v-73,-37,-160,-42,-237,0v-52,28,-120,79,-140,122v-12,78,4,125,38,204v44,101,139,216,267,218"},"C":{"d":"649,-858v89,0,168,28,211,59r35,-166r-707,0r25,-120r1075,0r-24,120r-209,0r-58,279v65,83,72,68,93,178r-134,0v33,-139,-48,-236,-182,-231v-214,7,-359,137,-448,273v-42,64,-68,109,-68,190v0,111,87,163,217,163v123,0,228,-55,279,-102r215,0v-34,93,-259,220,-389,215v-203,-6,-346,-121,-418,-262v-34,-66,-51,-127,-31,-203v31,-116,162,-253,277,-321v77,-46,156,-72,241,-72","w":1044},"D":{"d":"1155,-1855v136,166,163,492,94,770r131,0r-24,120r-131,0r-209,977r-166,-78r31,-143v-69,69,-132,123,-188,157v-113,69,-227,72,-339,-6v-110,-77,-241,-227,-194,-409v44,-171,241,-364,469,-369v99,-2,175,65,220,120v24,30,60,78,107,145r84,-394r-856,0r25,-120r858,0v78,-322,12,-504,-111,-738v0,-17,4,-28,11,-32r188,0xm274,-350v-24,121,28,236,138,233v147,-4,304,-145,388,-240v56,-63,88,-114,97,-153v1,-104,-93,-198,-203,-184v-173,22,-383,162,-420,344","w":1135},"E":{"d":"106,-252v29,-109,140,-161,236,-203v-43,-33,-105,-53,-96,-129v10,-83,84,-139,199,-171v115,-32,233,-48,352,-48r34,-162r-641,0r25,-120r1069,0v-7,20,-20,89,-27,120r-272,0r-41,197v24,4,50,17,62,27r-27,118v-71,-27,-150,-41,-238,-41v-127,0,-298,43,-329,148v0,53,71,80,213,80r127,-6r-21,92v-23,1,-59,2,-111,4v-104,5,-195,15,-264,56v-35,20,-57,48,-65,85v-1,90,99,133,194,131v272,-7,446,-137,586,-288r-53,253v-183,104,-392,140,-636,81v-123,-30,-270,-94,-276,-224","w":1040},"F":{"d":"565,-1141v7,18,4,43,-2,56r330,0r-25,120r-331,0r-207,973v-7,0,-59,-26,-158,-78r190,-895r-169,0r26,-120r160,0v-8,-95,-102,-152,-72,-267v43,-163,282,-323,491,-222v78,38,115,119,115,235v-41,-92,-104,-138,-190,-138v-112,0,-206,75,-229,168v2,65,35,126,71,168","w":647},"G":{"d":"813,-287v209,-8,225,257,193,449v-22,129,-91,186,-220,186v-107,0,-127,-31,-216,-76v-91,-47,-144,-84,-265,-84v-316,0,-567,204,-713,412v0,-63,28,-139,86,-228v100,-156,302,-329,541,-329v176,0,199,45,309,132v122,96,207,87,323,4v75,-53,107,-89,107,-179v0,-85,-49,-143,-137,-143v-173,0,-332,134,-504,145v-116,-16,-223,-134,-231,-260v11,-61,128,-140,201,-143r4,-11v-16,-44,-58,-85,-55,-145v10,-215,208,-275,432,-279v7,0,15,-13,18,-18r23,-111r-519,0r25,-120r1030,0r-26,120r-355,0r-35,168v0,36,4,55,13,58v57,-11,81,-100,155,-97v71,3,121,68,127,138r-131,120v2,-83,-11,-163,-84,-123v-15,8,-24,17,-26,27v7,16,16,57,14,82v-13,213,-163,256,-389,258v-105,0,-185,18,-242,53v-57,35,-90,66,-90,93v0,79,89,88,158,60r144,-61v113,-49,205,-93,335,-98xm332,-510v2,67,31,143,112,133v157,-20,349,-124,349,-301v0,-56,-36,-84,-107,-84v-166,0,-313,122,-354,252","w":997},"H":{"d":"352,-1765v159,106,224,418,170,680r807,0r-26,120r-807,0r-64,301v88,-76,187,-174,356,-172v237,3,365,199,324,447v-17,99,-67,183,-140,255v-73,72,-132,122,-177,150r-144,-98v136,-124,332,-247,332,-504v0,-100,-47,-162,-147,-162v-140,0,-289,111,-372,199v-53,57,-86,110,-97,162r-84,397r-166,-100r186,-875r-110,0r26,-120r111,0v13,-67,20,-131,20,-193v1,-221,-88,-388,-200,-485"},"I":{"d":"592,-1190v-11,6,-40,5,-53,0r-35,-117v-17,-54,-23,-76,-67,-93v-39,-14,-92,-14,-99,-58v-8,-53,-6,-89,-29,-141r6,-23r41,0v73,23,123,45,151,65v63,47,54,63,64,169v5,54,13,106,27,155v0,19,-2,34,-6,43xm602,-965r-405,0r24,-120r408,0xm276,23r-147,-93r166,-772r168,0","w":389},"J":{"d":"664,-1233v-3,29,5,50,-29,47v-11,0,-21,-1,-29,-4v-27,-93,-48,-149,-57,-172v-24,-59,-127,-32,-143,-96v-8,-32,-12,-103,-29,-141r6,-23r39,0v73,24,124,46,152,65v63,46,54,64,64,169v5,54,13,105,26,155xm752,-965r-602,0r26,-120r602,0xm330,385v-49,146,-303,282,-462,145v-47,-41,-78,-82,-87,-129r180,-120v-5,35,-8,66,-8,94v0,107,31,160,94,160v48,1,81,-43,90,-84r275,-1293r178,0","w":500,"k":{"J":-150,"j":-150}},"K":{"d":"422,-1786v111,140,138,459,80,701r659,0r-24,120r-656,0r-53,258v91,-45,200,-109,346,-104v132,6,266,75,236,227v-27,134,-174,216,-320,228r172,282r-147,92r-264,-424r92,-137v151,46,330,-15,344,-151v7,-65,-35,-80,-99,-80v-133,0,-264,131,-340,222v-50,60,-82,110,-90,149r-88,419r-153,-77r190,-904r-127,0r27,-120r121,0v19,-89,28,-172,28,-250v0,-199,-71,-331,-137,-451r203,0","w":920},"L":{"d":"647,-965r-104,0r24,-120r105,0xm305,-965r-115,0r25,-120r115,0xm444,-1798v111,132,165,368,117,592r-264,1231r-154,-84r244,-1145v34,-209,-22,-415,-111,-532r-43,-62r211,0","w":426},"M":{"d":"610,-842v130,-6,229,68,299,111r61,-25v66,-27,154,-62,224,-73r31,-136r-1041,0r25,-120r1546,0r-26,120r-330,0r-29,140v118,48,197,105,197,252v0,290,-211,453,-403,555v-100,53,-73,56,-142,-32r-86,-110v160,-13,348,-112,450,-210v74,-72,119,-127,125,-220v5,-87,-96,-131,-188,-127v-220,10,-379,139,-477,377r-187,-84v7,-79,94,-170,140,-231v3,-39,-89,-47,-125,-47v-182,0,-340,135,-371,286v-37,178,91,297,179,395v27,30,43,47,44,54v-127,-45,-263,-135,-348,-239v-99,-121,-87,-297,0,-412v91,-121,236,-215,432,-224","w":1511},"N":{"d":"1270,-965r-1075,0r24,-120r1075,0xm766,-842v258,-3,386,269,293,522v-53,143,-150,260,-268,363r-166,-121v87,-82,212,-164,275,-282v33,-63,71,-158,71,-246v0,-107,-62,-160,-187,-160v-162,0,-290,134,-376,254v-108,151,-125,344,-172,545r-146,-86r158,-752r172,0r-27,119v101,-65,212,-154,373,-156","w":1049},"O":{"d":"1272,-965r-223,0r-60,275v9,29,52,68,67,104v21,48,20,135,9,197v-48,260,-399,503,-689,335v-127,-74,-275,-224,-224,-419v48,-183,237,-360,479,-363v49,0,116,12,200,37v5,0,7,-3,7,-8r34,-158r-686,0r25,-120r1087,0xm260,-287v-21,101,75,185,168,181v144,-7,307,-106,398,-204v74,-80,123,-141,126,-259v3,-100,-77,-160,-166,-160v-238,0,-476,207,-526,442","w":1049},"P":{"d":"1339,-965r-1146,0r26,-120r1145,0xm1149,-475v0,122,-44,185,-115,269v-87,103,-237,208,-391,208v-89,0,-158,-64,-211,-116v-33,-32,-73,-76,-121,-132r-180,848r-141,-84r280,-1323r158,0r-53,244v93,-79,183,-160,291,-225v121,-71,201,-87,312,-8v85,60,171,184,171,319xm371,-305v0,77,112,143,200,141v173,-4,327,-111,411,-214v49,-59,77,-109,85,-150v-1,-91,-39,-186,-137,-181v-125,7,-249,88,-340,155v-88,66,-189,155,-219,249","w":1116},"Q":{"d":"1397,-1085r-27,120r-1177,0r26,-120r1178,0xm946,535r-203,94r191,-889v-104,87,-293,264,-475,264v-190,0,-334,-210,-287,-438v24,-118,163,-272,262,-342v143,-102,212,-91,370,1v82,48,146,119,193,212r47,-215r181,0xm287,-539v7,203,101,375,321,375v96,0,187,-39,242,-78v79,-56,51,-140,4,-216v-51,-82,-155,-161,-239,-205v-40,-21,-70,-31,-89,-31v-97,0,-223,83,-239,155","w":1151},"R":{"d":"1208,-965r-1013,0r24,-120r1014,0xm801,-840v130,9,279,87,246,234v-22,100,-160,185,-246,227r-111,-170v106,-12,202,-79,232,-164v-4,-41,-46,-85,-103,-80v-127,11,-256,122,-331,215v-51,63,-85,126,-99,191r-90,424r-172,-100r158,-740r194,0r-16,76v51,-35,236,-120,338,-113","w":983},"S":{"d":"688,-842v68,-2,209,33,260,47r37,-170r-797,0r25,-120r1032,0r-24,120r-109,0r-80,379v-55,-43,-235,-85,-334,-84v-103,2,-242,26,-322,66v-51,26,-89,55,-89,96v0,53,22,80,67,80v132,0,259,-90,414,-90v140,0,285,78,250,227v-39,166,-236,272,-420,293v48,60,91,84,168,66r65,165v-51,33,-212,43,-247,-19v-19,-33,-42,-73,-62,-127v-20,-54,-39,-81,-57,-81v-132,-7,-322,-34,-313,-174v5,-81,125,-105,193,-70v72,37,121,108,249,101v91,-5,228,-34,300,-71v48,-24,76,-52,83,-87v-4,-89,-113,-85,-196,-63r-169,43v-77,20,-124,30,-143,30v-157,-7,-280,-131,-246,-305v35,-180,259,-244,465,-252","w":1006},"T":{"d":"451,2v-130,0,-230,-101,-201,-238r153,-729r-208,0r24,-120r211,0r72,-336r153,125r-45,211r504,0r-24,120r-506,0r-172,805v-1,45,18,100,57,101v49,0,92,-25,129,-77v37,-52,65,-129,86,-231r176,115v-92,131,-202,254,-409,254","w":872},"U":{"d":"496,0v-212,-3,-371,-161,-322,-389r123,-576r-121,0r25,-120r1151,0r-27,120r-838,0r-135,641v-24,136,20,275,152,271v229,-7,365,-170,403,-350r84,-398r205,0r-182,852v-47,-27,-132,-66,-187,-94r19,-80v-102,61,-193,126,-350,123","w":1112},"V":{"d":"264,-762v77,-55,111,-72,225,-76v197,-7,256,120,209,289r-29,88v-22,70,-53,165,-53,246v0,113,63,74,123,-4r422,-551r43,-195r-1016,0r25,-120r1298,0r-26,120r-103,0v-5,30,-32,146,-41,191v-51,73,-200,258,-269,348r-333,428v-118,-25,-212,-135,-265,-240v-50,-101,-35,-261,14,-344v22,-38,91,-95,102,-135v-1,-29,-18,-35,-51,-35v-90,0,-94,43,-172,107","w":1274},"W":{"d":"911,-184v30,57,170,52,247,25v109,-38,211,-107,235,-220r123,-586r-1326,0r25,-120r1593,0r-26,120r-92,0r-129,615v-31,151,-182,260,-313,311v-118,46,-185,53,-286,13v-57,-23,-94,-55,-135,-91v-99,74,-325,171,-479,75v-99,-61,-194,-179,-162,-341v41,-208,218,-377,363,-467v8,13,21,32,39,58v18,26,44,61,76,102v-135,102,-312,207,-359,393v-6,26,-8,53,-8,80v0,87,38,131,115,131v248,0,388,-222,452,-399r172,98v-21,80,-78,154,-125,203","w":1565},"X":{"d":"475,-477v5,-119,-138,-90,-246,-86r62,-283v173,1,218,110,233,270v6,54,10,85,11,91r272,-273v8,-11,15,-22,22,-35r35,-172r-676,0r25,-120r987,0r-26,120r-119,0v-30,133,-45,201,-45,205v-11,36,-7,31,-31,55r-385,379v-2,62,69,146,135,142v93,-6,191,-87,242,-150r-66,318v-32,49,-214,42,-261,0v-55,-49,-69,-100,-79,-190v-4,-42,-9,-68,-16,-77r-299,283r-244,0r463,-424v4,-20,6,-38,6,-53","w":963},"Y":{"d":"547,-70v-212,-6,-396,-116,-348,-342r118,-553r-141,0r27,-120r1175,0r-26,120r-844,0r-123,590v-11,55,-16,92,-16,113v-4,152,195,176,317,115v122,-62,240,-167,270,-312r78,-377r197,72r-217,1024v-48,208,-230,332,-432,386v-278,75,-599,0,-684,-196v-17,-38,-25,-75,-25,-110v48,-168,247,-276,455,-285r92,170v-98,9,-236,33,-328,73v-64,28,-100,60,-106,103v14,131,122,207,288,203v272,-7,507,-144,555,-373r86,-407v-66,61,-195,111,-368,106","w":1135},"Z":{"d":"61,-111v26,-118,214,-198,365,-170r473,-454v-198,4,-495,34,-684,100r125,-196r29,-134r-179,0r27,-122r1182,0r-27,122r-878,0r-25,117r772,0r-672,629v35,35,218,117,314,110v127,-9,180,-32,225,-133v1,141,-126,275,-281,275v-176,0,-278,-66,-381,-133v-53,60,-228,153,-340,74v-29,-20,-45,-48,-45,-85","w":1145},"\\":{"d":"1085,268r-133,0r-553,-1904r131,0","w":1184},"`":{"d":"592,-1190v-11,6,-40,5,-53,0r-35,-117v-17,-54,-23,-76,-67,-93v-39,-14,-92,-14,-99,-58v-8,-53,-6,-89,-29,-141r6,-23r41,0v73,23,123,45,151,65v63,47,54,63,64,169v5,54,13,106,27,155v0,19,-2,34,-6,43","w":389},"a":{"d":"872,-606v-43,-72,-65,-92,-178,-92v-188,-1,-297,60,-434,104r14,-74v15,-9,42,-30,52,-39r55,-258r-205,0r27,-120r1001,0r-26,120r-666,0r-33,160v6,-1,4,9,10,8v-9,0,21,-7,87,-21v205,-45,456,-39,448,185v-3,93,-20,164,-41,258r-84,395v-51,-21,-108,-53,-143,-75v0,-26,-1,-40,-4,-41v-99,52,-200,98,-359,98v-159,0,-347,-90,-301,-258v51,-185,297,-320,545,-324v83,-2,174,31,215,66xm143,-188v0,60,83,72,152,73v170,3,340,-72,438,-142v51,-37,77,-62,80,-75v-8,-73,-155,-108,-225,-108v-183,0,-321,93,-408,188v-25,28,-37,50,-37,64","w":961},"b":{"d":"426,-1817v100,110,167,260,168,480v0,81,-10,165,-29,252r760,0r-25,120r-757,0r-80,373v69,-65,260,-235,401,-229v197,8,324,158,289,362v-29,165,-203,317,-341,393v-80,44,-145,66,-196,66v-46,0,-84,-13,-114,-40v-30,-27,-75,-78,-133,-153r-43,205r-158,-75r190,-902r-163,0r24,-120r164,0v65,-290,-55,-580,-178,-732r221,0xm776,-104v109,2,228,-153,246,-252v-5,-139,-74,-241,-174,-292v-73,-37,-160,-42,-237,0v-52,28,-120,79,-140,122v-12,78,4,125,38,204v44,101,139,216,267,218"},"c":{"d":"649,-858v89,0,168,28,211,59r35,-166r-707,0r25,-120r1075,0r-24,120r-209,0r-58,279v65,83,72,68,93,178r-134,0v33,-139,-48,-236,-182,-231v-214,7,-359,137,-448,273v-42,64,-68,109,-68,190v0,111,87,163,217,163v123,0,228,-55,279,-102r215,0v-34,93,-259,220,-389,215v-203,-6,-346,-121,-418,-262v-34,-66,-51,-127,-31,-203v31,-116,162,-253,277,-321v77,-46,156,-72,241,-72","w":1044},"d":{"d":"1155,-1855v136,166,163,492,94,770r131,0r-24,120r-131,0r-209,977r-166,-78r31,-143v-69,69,-132,123,-188,157v-113,69,-227,72,-339,-6v-110,-77,-241,-227,-194,-409v44,-171,241,-364,469,-369v99,-2,175,65,220,120v24,30,60,78,107,145r84,-394r-856,0r25,-120r858,0v78,-322,12,-504,-111,-738v0,-17,4,-28,11,-32r188,0xm274,-350v-24,121,28,236,138,233v147,-4,304,-145,388,-240v56,-63,88,-114,97,-153v1,-104,-93,-198,-203,-184v-173,22,-383,162,-420,344","w":1135},"e":{"d":"106,-252v29,-109,140,-161,236,-203v-43,-33,-105,-53,-96,-129v10,-83,84,-139,199,-171v115,-32,233,-48,352,-48r34,-162r-641,0r25,-120r1069,0v-7,20,-20,89,-27,120r-272,0r-41,197v24,4,50,17,62,27r-27,118v-71,-27,-150,-41,-238,-41v-127,0,-298,43,-329,148v0,53,71,80,213,80r127,-6r-21,92v-23,1,-59,2,-111,4v-104,5,-195,15,-264,56v-35,20,-57,48,-65,85v-1,90,99,133,194,131v272,-7,446,-137,586,-288r-53,253v-183,104,-392,140,-636,81v-123,-30,-270,-94,-276,-224","w":1040},"f":{"d":"565,-1141v7,18,4,43,-2,56r330,0r-25,120r-331,0r-207,973v-7,0,-59,-26,-158,-78r190,-895r-169,0r26,-120r160,0v-8,-95,-102,-152,-72,-267v43,-163,282,-323,491,-222v78,38,115,119,115,235v-41,-92,-104,-138,-190,-138v-112,0,-206,75,-229,168v2,65,35,126,71,168","w":647},"g":{"d":"827,-287v209,-8,225,257,193,449v-22,129,-90,186,-219,186v-106,0,-127,-31,-214,-76v-89,-46,-146,-84,-265,-84v-239,0,-417,118,-562,242v-61,52,-112,109,-153,170v0,-63,29,-140,87,-229v100,-156,300,-328,539,-328v176,0,203,47,311,133v120,95,207,85,321,3v75,-54,108,-88,108,-179v0,-85,-49,-143,-137,-143v-151,0,-353,134,-504,145v-116,-16,-224,-134,-232,-260v13,-60,129,-140,201,-143r4,-11v-15,-43,-58,-85,-55,-145v10,-215,209,-275,432,-279v7,0,15,-13,18,-18r25,-111r-520,0r24,-120r1031,0r-25,120r-354,0v-1,0,-14,56,-37,168v0,35,5,55,14,58v57,-13,81,-99,156,-97v71,2,119,68,125,138r-131,120v13,-77,-14,-170,-85,-123v-14,10,-24,17,-26,27v7,16,16,57,14,82v-13,213,-163,258,-389,258v-127,0,-234,36,-292,90v-24,22,-40,41,-40,56v0,79,89,88,158,60r144,-61v113,-49,205,-93,335,-98xm348,-510v2,77,32,133,111,133v148,0,314,-122,344,-264v16,-79,-16,-121,-103,-121v-164,0,-313,120,-352,252","w":997},"h":{"d":"352,-1765v159,106,224,418,170,680r807,0r-26,120r-807,0r-64,301v88,-76,187,-174,356,-172v237,3,365,199,324,447v-17,99,-67,183,-140,255v-73,72,-132,122,-177,150r-144,-98v136,-124,332,-247,332,-504v0,-100,-47,-162,-147,-162v-140,0,-289,111,-372,199v-53,57,-86,110,-97,162r-84,397r-166,-100r186,-875r-110,0r26,-120r111,0v13,-67,20,-131,20,-193v1,-221,-88,-388,-200,-485"},"i":{"d":"592,-1190v-11,6,-40,5,-53,0r-35,-117v-17,-54,-23,-76,-67,-93v-39,-14,-92,-14,-99,-58v-8,-53,-6,-89,-29,-141r6,-23r41,0v73,23,123,45,151,65v63,47,54,63,64,169v5,54,13,106,27,155v0,19,-2,34,-6,43xm602,-965r-405,0r24,-120r408,0xm276,23r-147,-93r166,-772r168,0","w":389},"j":{"d":"664,-1233v-3,29,5,50,-29,47v-11,0,-21,-1,-29,-4v-27,-93,-48,-149,-57,-172v-24,-59,-127,-32,-143,-96v-8,-32,-12,-103,-29,-141r6,-23r39,0v73,24,124,46,152,65v63,46,54,64,64,169v5,54,13,105,26,155xm752,-965r-602,0r26,-120r602,0xm330,385v-49,146,-303,282,-462,145v-47,-41,-78,-82,-87,-129r180,-120v-5,35,-8,66,-8,94v0,107,31,160,94,160v48,1,81,-43,90,-84r275,-1293r178,0","w":500,"k":{"J":-150,"j":-150}},"k":{"d":"422,-1786v111,140,138,459,80,701r659,0r-24,120r-656,0r-53,258v91,-45,200,-109,346,-104v132,6,266,75,236,227v-27,134,-174,216,-320,228r172,282r-147,92r-264,-424r92,-137v151,46,330,-15,344,-151v7,-65,-35,-80,-99,-80v-133,0,-264,131,-340,222v-50,60,-82,110,-90,149r-88,419r-153,-77r190,-904r-127,0r27,-120r121,0v19,-89,28,-172,28,-250v0,-199,-71,-331,-137,-451r203,0","w":920},"l":{"d":"647,-965r-104,0r24,-120r105,0xm305,-965r-115,0r25,-120r115,0xm444,-1798v111,132,165,368,117,592r-264,1231r-154,-84r244,-1145v34,-209,-22,-415,-111,-532r-43,-62r211,0","w":426},"m":{"d":"610,-842v130,-6,229,68,299,111r61,-25v66,-27,154,-62,224,-73r31,-136r-1041,0r25,-120r1546,0r-26,120r-330,0r-29,140v118,48,197,105,197,252v0,290,-211,453,-403,555v-100,53,-73,56,-142,-32r-86,-110v160,-13,348,-112,450,-210v74,-72,119,-127,125,-220v5,-87,-96,-131,-188,-127v-220,10,-379,139,-477,377r-187,-84v7,-79,94,-170,140,-231v3,-39,-89,-47,-125,-47v-182,0,-340,135,-371,286v-37,178,91,297,179,395v27,30,43,47,44,54v-127,-45,-263,-135,-348,-239v-99,-121,-87,-297,0,-412v91,-121,236,-215,432,-224","w":1511},"n":{"d":"1270,-965r-1075,0r24,-120r1075,0xm766,-842v258,-3,386,269,293,522v-53,143,-150,260,-268,363r-166,-121v87,-82,212,-164,275,-282v33,-63,71,-158,71,-246v0,-107,-62,-160,-187,-160v-162,0,-290,134,-376,254v-108,151,-125,344,-172,545r-146,-86r158,-752r172,0r-27,119v101,-65,212,-154,373,-156","w":1049},"o":{"d":"1272,-965r-223,0r-60,275v9,29,52,68,67,104v21,48,20,135,9,197v-48,260,-399,503,-689,335v-127,-74,-275,-224,-224,-419v48,-183,237,-360,479,-363v49,0,116,12,200,37v5,0,7,-3,7,-8r34,-158r-686,0r25,-120r1087,0xm260,-287v-21,101,75,185,168,181v144,-7,307,-106,398,-204v74,-80,123,-141,126,-259v3,-100,-77,-160,-166,-160v-238,0,-476,207,-526,442","w":1049},"p":{"d":"1339,-965r-1146,0r26,-120r1145,0xm1149,-475v0,122,-44,185,-115,269v-87,103,-237,208,-391,208v-89,0,-158,-64,-211,-116v-33,-32,-73,-76,-121,-132r-180,848r-141,-84r280,-1323r158,0r-53,244v93,-79,183,-160,291,-225v121,-71,201,-87,312,-8v85,60,171,184,171,319xm371,-305v0,77,112,143,200,141v173,-4,327,-111,411,-214v49,-59,77,-109,85,-150v-1,-91,-39,-186,-137,-181v-125,7,-249,88,-340,155v-88,66,-189,155,-219,249","w":1116},"q":{"d":"1397,-1085r-27,120r-1177,0r26,-120r1178,0xm946,535r-203,94r191,-889v-104,87,-293,264,-475,264v-190,0,-334,-210,-287,-438v24,-118,163,-272,262,-342v143,-102,212,-91,370,1v82,48,146,119,193,212r47,-215r181,0xm287,-539v7,203,101,375,321,375v96,0,187,-39,242,-78v79,-56,51,-140,4,-216v-51,-82,-155,-161,-239,-205v-40,-21,-70,-31,-89,-31v-97,0,-223,83,-239,155","w":1151},"r":{"d":"1208,-965r-1013,0r24,-120r1014,0xm801,-840v130,9,279,87,246,234v-22,100,-160,185,-246,227r-111,-170v106,-12,202,-79,232,-164v-4,-41,-46,-85,-103,-80v-127,11,-256,122,-331,215v-51,63,-85,126,-99,191r-90,424r-172,-100r158,-740r194,0r-16,76v51,-35,236,-120,338,-113","w":983},"s":{"d":"688,-842v68,-2,209,33,260,47r37,-170r-797,0r25,-120r1032,0r-24,120r-109,0r-80,379v-55,-43,-235,-85,-334,-84v-103,2,-242,26,-322,66v-51,26,-89,55,-89,96v0,53,22,80,67,80v132,0,259,-90,414,-90v140,0,285,78,250,227v-39,166,-236,272,-420,293v48,60,91,84,168,66r65,165v-51,33,-212,43,-247,-19v-19,-33,-42,-73,-62,-127v-20,-54,-39,-81,-57,-81v-132,-7,-322,-34,-313,-174v5,-81,125,-105,193,-70v72,37,121,108,249,101v91,-5,228,-34,300,-71v48,-24,76,-52,83,-87v-4,-89,-113,-85,-196,-63r-169,43v-77,20,-124,30,-143,30v-157,-7,-280,-131,-246,-305v35,-180,259,-244,465,-252","w":1006},"t":{"d":"451,2v-130,0,-230,-101,-201,-238r153,-729r-208,0r24,-120r211,0r72,-336r153,125r-45,211r504,0r-24,120r-506,0r-172,805v-1,45,18,100,57,101v49,0,92,-25,129,-77v37,-52,65,-129,86,-231r176,115v-92,131,-202,254,-409,254","w":872},"u":{"d":"496,0v-212,-3,-371,-161,-322,-389r123,-576r-121,0r25,-120r1151,0r-27,120r-838,0r-135,641v-24,136,20,275,152,271v229,-7,365,-170,403,-350r84,-398r205,0r-182,852v-47,-27,-132,-66,-187,-94r19,-80v-102,61,-193,126,-350,123","w":1112},"v":{"d":"264,-762v77,-55,111,-72,225,-76v197,-7,256,120,209,289r-29,88v-22,70,-53,165,-53,246v0,113,63,74,123,-4r422,-551r43,-195r-1016,0r25,-120r1298,0r-26,120r-103,0v-5,30,-32,146,-41,191v-51,73,-200,258,-269,348r-333,428v-118,-25,-212,-135,-265,-240v-50,-101,-35,-261,14,-344v22,-38,91,-95,102,-135v-1,-29,-18,-35,-51,-35v-90,0,-94,43,-172,107","w":1274},"w":{"d":"911,-184v30,57,170,52,247,25v109,-38,211,-107,235,-220r123,-586r-1326,0r25,-120r1593,0r-26,120r-92,0r-129,615v-31,151,-182,260,-313,311v-118,46,-185,53,-286,13v-57,-23,-94,-55,-135,-91v-99,74,-325,171,-479,75v-99,-61,-194,-179,-162,-341v41,-208,218,-377,363,-467v8,13,21,32,39,58v18,26,44,61,76,102v-135,102,-312,207,-359,393v-6,26,-8,53,-8,80v0,87,38,131,115,131v248,0,388,-222,452,-399r172,98v-21,80,-78,154,-125,203","w":1565},"x":{"d":"475,-477v5,-119,-138,-90,-246,-86r62,-283v173,1,218,110,233,270v6,54,10,85,11,91r272,-273v8,-11,15,-22,22,-35r35,-172r-676,0r25,-120r987,0r-26,120r-119,0v-30,133,-45,201,-45,205v-11,36,-7,31,-31,55r-385,379v-2,62,69,146,135,142v93,-6,191,-87,242,-150r-66,318v-32,49,-214,42,-261,0v-55,-49,-69,-100,-79,-190v-4,-42,-9,-68,-16,-77r-299,283r-244,0r463,-424v4,-20,6,-38,6,-53","w":963},"y":{"d":"547,-70v-212,-6,-396,-116,-348,-342r118,-553r-141,0r27,-120r1175,0r-26,120r-844,0r-123,590v-11,55,-16,92,-16,113v-4,152,195,176,317,115v122,-62,240,-167,270,-312r78,-377r197,72r-217,1024v-48,208,-230,332,-432,386v-278,75,-599,0,-684,-196v-17,-38,-25,-75,-25,-110v48,-168,247,-276,455,-285r92,170v-98,9,-236,33,-328,73v-64,28,-100,60,-106,103v14,131,122,207,288,203v272,-7,507,-144,555,-373r86,-407v-66,61,-195,111,-368,106","w":1135},"z":{"d":"61,-111v26,-118,214,-198,365,-170r473,-454v-198,4,-495,34,-684,100r125,-196r29,-134r-179,0r27,-122r1182,0r-27,122r-878,0r-25,117r772,0r-672,629v35,35,218,117,314,110v127,-9,180,-32,225,-133v1,141,-126,275,-281,275v-176,0,-278,-66,-381,-133v-53,60,-228,153,-340,74v-29,-20,-45,-48,-45,-85","w":1145},"|":{"d":"182,266r-104,-73r389,-1829r121,0","w":358},"\u00a0":{"w":666}}});
